<?xml version="1.0"?>
<opencv_storage>
<cascade>
  <stageType>BOOST</stageType>
  <featureType>HAAR</featureType>
  <height>30</height>
  <width>30</width>
  <stageParams>
    <boostType>GAB</boostType>
    <minHitRate>9.9500000476837158e-01</minHitRate>
    <maxFalseAlarm>5.0000000000000000e-01</maxFalseAlarm>
    <weightTrimRate>9.4999999999999996e-01</weightTrimRate>
    <maxDepth>1</maxDepth>
    <maxWeakCount>100</maxWeakCount></stageParams>
  <featureParams>
    <maxCatCount>0</maxCatCount>
    <featSize>1</featSize>
    <mode>BASIC</mode></featureParams>
  <stageNum>15</stageNum>
  <stages>
    <!-- stage 0 -->
    <_>
      <maxWeakCount>4</maxWeakCount>
      <stageThreshold>-2.0875649452209473e+00</stageThreshold>
      <weakClassifiers>
        <_>
          <internalNodes>
            0 -1 101 -5.6653940118849277e-03</internalNodes>
          <leafValues>
            -9.5485895872116089e-01 3.2413792610168457e-01</leafValues></_>
        <_>
          <internalNodes>
            0 -1 213 2.2363491356372833e-02</internalNodes>
          <leafValues>
            -7.8451198339462280e-01 5.4599326848983765e-01</leafValues></_>
        <_>
          <internalNodes>
            0 -1 39 -3.0170999467372894e-02</internalNodes>
          <leafValues>
            5.5906611680984497e-01 -6.1166036128997803e-01</leafValues></_>
        <_>
          <internalNodes>
            0 -1 27 -7.8227743506431580e-02</internalNodes>
          <leafValues>
            -9.9813771247863770e-01 2.6346629858016968e-01</leafValues></_></weakClassifiers></_>
    <!-- stage 1 -->
    <_>
      <maxWeakCount>5</maxWeakCount>
      <stageThreshold>-1.2855949401855469e+00</stageThreshold>
      <weakClassifiers>
        <_>
          <internalNodes>
            0 -1 212 3.8523953408002853e-02</internalNodes>
          <leafValues>
            -7.1809524297714233e-01 5.0999999046325684e-01</leafValues></_>
        <_>
          <internalNodes>
            0 -1 40 -3.1101925298571587e-02</internalNodes>
          <leafValues>
            5.3091573715209961e-01 -6.6713547706604004e-01</leafValues></_>
        <_>
          <internalNodes>
            0 -1 28 -1.8890559673309326e-01</internalNodes>
          <leafValues>
            6.4122968912124634e-01 -4.5824873447418213e-01</leafValues></_>
        <_>
          <internalNodes>
            0 -1 88 1.1903844773769379e-02</internalNodes>
          <leafValues>
            -7.4440604448318481e-01 3.2148987054824829e-01</leafValues></_>
        <_>
          <internalNodes>
            0 -1 149 -4.4686727225780487e-02</internalNodes>
          <leafValues>
            2.3639461398124695e-01 -8.6446803808212280e-01</leafValues></_></weakClassifiers></_>
    <!-- stage 2 -->
    <_>
      <maxWeakCount>7</maxWeakCount>
      <stageThreshold>-1.6652897596359253e+00</stageThreshold>
      <weakClassifiers>
        <_>
          <internalNodes>
            0 -1 171 1.6898270696401596e-02</internalNodes>
          <leafValues>
            -6.7958897352218628e-01 4.6772068738937378e-01</leafValues></_>
        <_>
          <internalNodes>
            0 -1 78 -9.1926708817481995e-02</internalNodes>
          <leafValues>
            3.9382934570312500e-01 -6.9367551803588867e-01</leafValues></_>
        <_>
          <internalNodes>
            0 -1 196 2.8837464749813080e-02</internalNodes>
          <leafValues>
            -5.7068538665771484e-01 3.7949699163436890e-01</leafValues></_>
        <_>
          <internalNodes>
            0 -1 37 -6.7266542464494705e-03</internalNodes>
          <leafValues>
            4.4085967540740967e-01 -4.7166210412979126e-01</leafValues></_>
        <_>
          <internalNodes>
            0 -1 130 -3.3149231225252151e-02</internalNodes>
          <leafValues>
            -7.8352439403533936e-01 2.1197935938835144e-01</leafValues></_>
        <_>
          <internalNodes>
            0 -1 162 -5.4666161537170410e-02</internalNodes>
          <leafValues>
            1.7440117895603180e-01 -7.9189091920852661e-01</leafValues></_>
        <_>
          <internalNodes>
            0 -1 25 -4.9142312491312623e-04</internalNodes>
          <leafValues>
            3.6394163966178894e-01 -4.0067321062088013e-01</leafValues></_></weakClassifiers></_>
    <!-- stage 3 -->
    <_>
      <maxWeakCount>9</maxWeakCount>
      <stageThreshold>-1.4057027101516724e+00</stageThreshold>
      <weakClassifiers>
        <_>
          <internalNodes>
            0 -1 64 -1.7058748006820679e-01</internalNodes>
          <leafValues>
            6.3352829217910767e-01 -5.9698367118835449e-01</leafValues></_>
        <_>
          <internalNodes>
            0 -1 7 -4.5826330780982971e-02</internalNodes>
          <leafValues>
            5.0347483158111572e-01 -5.0566035509109497e-01</leafValues></_>
        <_>
          <internalNodes>
            0 -1 211 1.9034696742892265e-02</internalNodes>
          <leafValues>
            -6.0744947195053101e-01 3.6241710186004639e-01</leafValues></_>
        <_>
          <internalNodes>
            0 -1 145 -2.2900844924151897e-03</internalNodes>
          <leafValues>
            -7.2528982162475586e-01 2.1114207804203033e-01</leafValues></_>
        <_>
          <internalNodes>
            0 -1 76 -1.2762764096260071e-01</internalNodes>
          <leafValues>
            6.9547206163406372e-01 -2.6346063613891602e-01</leafValues></_>
        <_>
          <internalNodes>
            0 -1 90 3.6876559257507324e-02</internalNodes>
          <leafValues>
            -2.0843470096588135e-01 6.4008527994155884e-01</leafValues></_>
        <_>
          <internalNodes>
            0 -1 100 -2.1535137295722961e-01</internalNodes>
          <leafValues>
            -6.3378548622131348e-01 2.0869259536266327e-01</leafValues></_>
        <_>
          <internalNodes>
            0 -1 108 1.8813822418451309e-02</internalNodes>
          <leafValues>
            -5.5605983734130859e-01 2.0148678123950958e-01</leafValues></_>
        <_>
          <internalNodes>
            0 -1 112 1.6537832096219063e-02</internalNodes>
          <leafValues>
            1.5496467053890228e-01 -6.8525695800781250e-01</leafValues></_></weakClassifiers></_>
    <!-- stage 4 -->
    <_>
      <maxWeakCount>10</maxWeakCount>
      <stageThreshold>-1.7413761615753174e+00</stageThreshold>
      <weakClassifiers>
        <_>
          <internalNodes>
            0 -1 212 3.6213494837284088e-02</internalNodes>
          <leafValues>
            -7.1275454759597778e-01 2.2243714332580566e-01</leafValues></_>
        <_>
          <internalNodes>
            0 -1 41 -9.9718391895294189e-02</internalNodes>
          <leafValues>
            3.5754013061523438e-01 -6.3943094015121460e-01</leafValues></_>
        <_>
          <internalNodes>
            0 -1 103 -2.3709393572062254e-03</internalNodes>
          <leafValues>
            2.1385160088539124e-01 -6.5496605634689331e-01</leafValues></_>
        <_>
          <internalNodes>
            0 -1 43 3.5648092627525330e-02</internalNodes>
          <leafValues>
            -5.3170549869537354e-01 2.7351436018943787e-01</leafValues></_>
        <_>
          <internalNodes>
            0 -1 177 2.1682824008166790e-03</internalNodes>
          <leafValues>
            -5.1165527105331421e-01 2.7189049124717712e-01</leafValues></_>
        <_>
          <internalNodes>
            0 -1 33 -2.4102436378598213e-02</internalNodes>
          <leafValues>
            3.5485658049583435e-01 -3.5531002283096313e-01</leafValues></_>
        <_>
          <internalNodes>
            0 -1 143 1.4163061277940869e-03</internalNodes>
          <leafValues>
            1.4314465224742889e-01 -7.1607547998428345e-01</leafValues></_>
        <_>
          <internalNodes>
            0 -1 135 -2.3451722227036953e-03</internalNodes>
          <leafValues>
            -6.7204117774963379e-01 1.0291066020727158e-01</leafValues></_>
        <_>
          <internalNodes>
            0 -1 164 -2.5412426330149174e-03</internalNodes>
          <leafValues>
            2.3059520125389099e-01 -4.0858188271522522e-01</leafValues></_>
        <_>
          <internalNodes>
            0 -1 71 1.6417025472037494e-04</internalNodes>
          <leafValues>
            8.9567080140113831e-02 -7.2713601589202881e-01</leafValues></_></weakClassifiers></_>
    <!-- stage 5 -->
    <_>
      <maxWeakCount>11</maxWeakCount>
      <stageThreshold>-1.4226663112640381e+00</stageThreshold>
      <weakClassifiers>
        <_>
          <internalNodes>
            0 -1 208 5.1877781748771667e-02</internalNodes>
          <leafValues>
            -6.2705492973327637e-01 3.0479896068572998e-01</leafValues></_>
        <_>
          <internalNodes>
            0 -1 121 4.2548790574073792e-02</internalNodes>
          <leafValues>
            -3.2648330926895142e-01 5.7247668504714966e-01</leafValues></_>
        <_>
          <internalNodes>
            0 -1 93 -1.2267161905765533e-01</internalNodes>
          <leafValues>
            -9.0164178609848022e-01 1.8073791265487671e-01</leafValues></_>
        <_>
          <internalNodes>
            0 -1 23 -3.7204704130999744e-04</internalNodes>
          <leafValues>
            3.7988081574440002e-01 -3.7294507026672363e-01</leafValues></_>
        <_>
          <internalNodes>
            0 -1 179 -5.1092468202114105e-02</internalNodes>
          <leafValues>
            1.2590873241424561e-01 -8.8022357225418091e-01</leafValues></_>
        <_>
          <internalNodes>
            0 -1 150 -2.1990197710692883e-03</internalNodes>
          <leafValues>
            3.6537680029869080e-01 -3.6135566234588623e-01</leafValues></_>
        <_>
          <internalNodes>
            0 -1 10 -1.5521063469350338e-03</internalNodes>
          <leafValues>
            4.2033776640892029e-01 -2.7216747403144836e-01</leafValues></_>
        <_>
          <internalNodes>
            0 -1 199 1.0773631220217794e-04</internalNodes>
          <leafValues>
            -5.0626111030578613e-01 2.0718643069267273e-01</leafValues></_>
        <_>
          <internalNodes>
            0 -1 62 -1.0490883141756058e-01</internalNodes>
          <leafValues>
            7.2107410430908203e-01 -1.6439893841743469e-01</leafValues></_>
        <_>
          <internalNodes>
            0 -1 119 -2.4746004492044449e-03</internalNodes>
          <leafValues>
            -8.6741757392883301e-01 1.4732931554317474e-01</leafValues></_>
        <_>
          <internalNodes>
            0 -1 181 -1.1364384554326534e-03</internalNodes>
          <leafValues>
            -7.2553420066833496e-01 9.3039110302925110e-02</leafValues></_></weakClassifiers></_>
    <!-- stage 6 -->
    <_>
      <maxWeakCount>13</maxWeakCount>
      <stageThreshold>-1.4652789831161499e+00</stageThreshold>
      <weakClassifiers>
        <_>
          <internalNodes>
            0 -1 141 3.2623432576656342e-02</internalNodes>
          <leafValues>
            -6.0999041795730591e-01 2.0782396197319031e-01</leafValues></_>
        <_>
          <internalNodes>
            0 -1 227 2.5475278962403536e-03</internalNodes>
          <leafValues>
            -5.4315340518951416e-01 3.0206605792045593e-01</leafValues></_>
        <_>
          <internalNodes>
            0 -1 38 -1.3067224062979221e-02</internalNodes>
          <leafValues>
            2.6882022619247437e-01 -4.9793899059295654e-01</leafValues></_>
        <_>
          <internalNodes>
            0 -1 106 -1.0370448231697083e-02</internalNodes>
          <leafValues>
            2.1517841517925262e-01 -5.0991070270538330e-01</leafValues></_>
        <_>
          <internalNodes>
            0 -1 190 1.0646361857652664e-02</internalNodes>
          <leafValues>
            -4.2641836404800415e-01 2.5517818331718445e-01</leafValues></_>
        <_>
          <internalNodes>
            0 -1 95 2.1577582811005414e-04</internalNodes>
          <leafValues>
            1.9125421345233917e-01 -6.1582672595977783e-01</leafValues></_>
        <_>
          <internalNodes>
            0 -1 96 -1.8342066323384643e-04</internalNodes>
          <leafValues>
            -6.9938164949417114e-01 1.1398503929376602e-01</leafValues></_>
        <_>
          <internalNodes>
            0 -1 55 4.4860341586172581e-03</internalNodes>
          <leafValues>
            -2.1477064490318298e-01 4.2689976096153259e-01</leafValues></_>
        <_>
          <internalNodes>
            0 -1 155 1.5635334420949221e-04</internalNodes>
          <leafValues>
            1.0768948495388031e-01 -7.1095347404479980e-01</leafValues></_>
        <_>
          <internalNodes>
            0 -1 155 -1.8047087360173464e-04</internalNodes>
          <leafValues>
            -7.3006075620651245e-01 1.2755598127841949e-01</leafValues></_>
        <_>
          <internalNodes>
            0 -1 79 3.8711097091436386e-02</internalNodes>
          <leafValues>
            -1.5610191226005554e-01 6.6373270750045776e-01</leafValues></_>
        <_>
          <internalNodes>
            0 -1 15 7.1982135996222496e-03</internalNodes>
          <leafValues>
            -3.9075624942779541e-01 2.2091521322727203e-01</leafValues></_>
        <_>
          <internalNodes>
            0 -1 148 -4.0711946785449982e-02</internalNodes>
          <leafValues>
            1.2045380473136902e-01 -7.0165669918060303e-01</leafValues></_></weakClassifiers></_>
    <!-- stage 7 -->
    <_>
      <maxWeakCount>19</maxWeakCount>
      <stageThreshold>-1.7948777675628662e+00</stageThreshold>
      <weakClassifiers>
        <_>
          <internalNodes>
            0 -1 170 1.2224301695823669e-02</internalNodes>
          <leafValues>
            -5.8215749263763428e-01 2.5462305545806885e-01</leafValues></_>
        <_>
          <internalNodes>
            0 -1 35 2.0599851268343627e-05</internalNodes>
          <leafValues>
            -4.7269609570503235e-01 2.3461861908435822e-01</leafValues></_>
        <_>
          <internalNodes>
            0 -1 240 -7.0107197389006615e-03</internalNodes>
          <leafValues>
            -6.1509764194488525e-01 1.7056845128536224e-01</leafValues></_>
        <_>
          <internalNodes>
            0 -1 69 -1.9996541738510132e-01</internalNodes>
          <leafValues>
            4.7798365354537964e-01 -2.7852216362953186e-01</leafValues></_>
        <_>
          <internalNodes>
            0 -1 89 1.7860103398561478e-02</internalNodes>
          <leafValues>
            -6.1068528890609741e-01 1.7852139472961426e-01</leafValues></_>
        <_>
          <internalNodes>
            0 -1 57 8.3461493253707886e-02</internalNodes>
          <leafValues>
            1.7979104816913605e-01 -5.1115518808364868e-01</leafValues></_>
        <_>
          <internalNodes>
            0 -1 183 -1.0794515401357785e-04</internalNodes>
          <leafValues>
            -6.3981491327285767e-01 1.1919848620891571e-01</leafValues></_>
        <_>
          <internalNodes>
            0 -1 77 -1.0335037112236023e-01</internalNodes>
          <leafValues>
            8.1497436761856079e-01 -1.5143944323062897e-01</leafValues></_>
        <_>
          <internalNodes>
            0 -1 38 -2.4078175425529480e-02</internalNodes>
          <leafValues>
            3.7894317507743835e-01 -2.5755417346954346e-01</leafValues></_>
        <_>
          <internalNodes>
            0 -1 187 -6.1760926619172096e-03</internalNodes>
          <leafValues>
            3.5747197270393372e-01 -2.3302754759788513e-01</leafValues></_>
        <_>
          <internalNodes>
            0 -1 239 -2.3546139709651470e-04</internalNodes>
          <leafValues>
            -7.5510174036026001e-01 1.0291512310504913e-01</leafValues></_>
        <_>
          <internalNodes>
            0 -1 139 1.3687396422028542e-03</internalNodes>
          <leafValues>
            -1.5307722985744476e-01 5.5779618024826050e-01</leafValues></_>
        <_>
          <internalNodes>
            0 -1 152 6.9801248610019684e-03</internalNodes>
          <leafValues>
            1.3196800649166107e-01 -6.3028359413146973e-01</leafValues></_>
        <_>
          <internalNodes>
            0 -1 2 -1.0634627938270569e-01</internalNodes>
          <leafValues>
            -8.2835060358047485e-01 8.2135684788227081e-02</leafValues></_>
        <_>
          <internalNodes>
            0 -1 21 1.6697607934474945e-02</internalNodes>
          <leafValues>
            -4.0750208497047424e-01 1.9301570951938629e-01</leafValues></_>
        <_>
          <internalNodes>
            0 -1 234 7.7712489292025566e-04</internalNodes>
          <leafValues>
            1.0444179922342300e-01 -7.0327448844909668e-01</leafValues></_>
        <_>
          <internalNodes>
            0 -1 105 -3.8084797561168671e-02</internalNodes>
          <leafValues>
            -8.6352366209030151e-01 6.3494637608528137e-02</leafValues></_>
        <_>
          <internalNodes>
            0 -1 147 -4.2450334876775742e-02</internalNodes>
          <leafValues>
            6.0713917016983032e-02 -9.6725314855575562e-01</leafValues></_>
        <_>
          <internalNodes>
            0 -1 228 2.0150197087787092e-04</internalNodes>
          <leafValues>
            -3.1984981894493103e-01 2.2760298848152161e-01</leafValues></_></weakClassifiers></_>
    <!-- stage 8 -->
    <_>
      <maxWeakCount>21</maxWeakCount>
      <stageThreshold>-1.6662733554840088e+00</stageThreshold>
      <weakClassifiers>
        <_>
          <internalNodes>
            0 -1 14 -2.3990608751773834e-03</internalNodes>
          <leafValues>
            3.2442748546600342e-02 -6.1231100559234619e-01</leafValues></_>
        <_>
          <internalNodes>
            0 -1 214 1.8770430237054825e-02</internalNodes>
          <leafValues>
            -5.7013213634490967e-01 1.7059884965419769e-01</leafValues></_>
        <_>
          <internalNodes>
            0 -1 13 -1.0179778933525085e-01</internalNodes>
          <leafValues>
            2.4899977445602417e-01 -4.9635219573974609e-01</leafValues></_>
        <_>
          <internalNodes>
            0 -1 180 -1.4601340517401695e-03</internalNodes>
          <leafValues>
            3.1942263245582581e-01 -3.3758378028869629e-01</leafValues></_>
        <_>
          <internalNodes>
            0 -1 98 5.4605118930339813e-03</internalNodes>
          <leafValues>
            -4.3101617693901062e-01 2.0643638074398041e-01</leafValues></_>
        <_>
          <internalNodes>
            0 -1 192 2.0865380764007568e-02</internalNodes>
          <leafValues>
            -1.8720500171184540e-01 4.4920048117637634e-01</leafValues></_>
        <_>
          <internalNodes>
            0 -1 59 -6.7648559808731079e-02</internalNodes>
          <leafValues>
            5.4060959815979004e-01 -1.8586829304695129e-01</leafValues></_>
        <_>
          <internalNodes>
            0 -1 194 -9.2885093181394041e-05</internalNodes>
          <leafValues>
            -5.1412969827651978e-01 1.9180002808570862e-01</leafValues></_>
        <_>
          <internalNodes>
            0 -1 86 -1.1610376834869385e-01</internalNodes>
          <leafValues>
            6.7926026880741119e-02 -9.0838700532913208e-01</leafValues></_>
        <_>
          <internalNodes>
            0 -1 219 1.9333118107169867e-03</internalNodes>
          <leafValues>
            -1.6772037744522095e-01 4.6634918451309204e-01</leafValues></_>
        <_>
          <internalNodes>
            0 -1 200 -6.6649047657847404e-03</internalNodes>
          <leafValues>
            4.2545285820960999e-01 -1.4879892766475677e-01</leafValues></_>
        <_>
          <internalNodes>
            0 -1 84 -3.6432354245334864e-03</internalNodes>
          <leafValues>
            2.6465567946434021e-01 -2.5954851508140564e-01</leafValues></_>
        <_>
          <internalNodes>
            0 -1 153 1.2971021351404488e-04</internalNodes>
          <leafValues>
            1.3062848150730133e-01 -5.3179633617401123e-01</leafValues></_>
        <_>
          <internalNodes>
            0 -1 197 -4.9192045116797090e-04</internalNodes>
          <leafValues>
            4.2308211326599121e-01 -1.6797803342342377e-01</leafValues></_>
        <_>
          <internalNodes>
            0 -1 182 6.4412541687488556e-03</internalNodes>
          <leafValues>
            -1.1845744401216507e-01 5.9212857484817505e-01</leafValues></_>
        <_>
          <internalNodes>
            0 -1 134 1.0354820406064391e-03</internalNodes>
          <leafValues>
            1.3923549652099609e-01 -5.8989709615707397e-01</leafValues></_>
        <_>
          <internalNodes>
            0 -1 97 -3.6373664624989033e-04</internalNodes>
          <leafValues>
            1.5777443349361420e-01 -3.7569171190261841e-01</leafValues></_>
        <_>
          <internalNodes>
            0 -1 36 1.5494294930249453e-03</internalNodes>
          <leafValues>
            -1.7916648089885712e-01 3.6348173022270203e-01</leafValues></_>
        <_>
          <internalNodes>
            0 -1 205 2.2070420527597889e-05</internalNodes>
          <leafValues>
            -5.0624102354049683e-01 1.4438024163246155e-01</leafValues></_>
        <_>
          <internalNodes>
            0 -1 72 -4.5918934047222137e-03</internalNodes>
          <leafValues>
            3.1159770488739014e-01 -2.1351589262485504e-01</leafValues></_>
        <_>
          <internalNodes>
            0 -1 176 -1.9461940973997116e-04</internalNodes>
          <leafValues>
            -7.1890610456466675e-01 9.6588954329490662e-02</leafValues></_></weakClassifiers></_>
    <!-- stage 9 -->
    <_>
      <maxWeakCount>18</maxWeakCount>
      <stageThreshold>-1.4011199474334717e+00</stageThreshold>
      <weakClassifiers>
        <_>
          <internalNodes>
            0 -1 52 -2.5927117466926575e-01</internalNodes>
          <leafValues>
            2.0414201915264130e-01 -5.5665469169616699e-01</leafValues></_>
        <_>
          <internalNodes>
            0 -1 213 4.4768609106540680e-02</internalNodes>
          <leafValues>
            -3.6234918236732483e-01 2.8983438014984131e-01</leafValues></_>
        <_>
          <internalNodes>
            0 -1 45 -6.3717722892761230e-02</internalNodes>
          <leafValues>
            5.7465010881423950e-01 -1.6861540079116821e-01</leafValues></_>
        <_>
          <internalNodes>
            0 -1 85 -1.8151985714212060e-03</internalNodes>
          <leafValues>
            2.0172582566738129e-01 -5.4290676116943359e-01</leafValues></_>
        <_>
          <internalNodes>
            0 -1 167 -1.9667632295750082e-04</internalNodes>
          <leafValues>
            -6.8973946571350098e-01 1.2417931109666824e-01</leafValues></_>
        <_>
          <internalNodes>
            0 -1 75 1.7094224691390991e-02</internalNodes>
          <leafValues>
            1.0639606416225433e-01 -8.2211399078369141e-01</leafValues></_>
        <_>
          <internalNodes>
            0 -1 60 -3.7470970302820206e-02</internalNodes>
          <leafValues>
            7.3440706729888916e-01 -1.4177255332469940e-01</leafValues></_>
        <_>
          <internalNodes>
            0 -1 122 3.4169789403676987e-02</internalNodes>
          <leafValues>
            -1.4541718363761902e-01 4.8519939184188843e-01</leafValues></_>
        <_>
          <internalNodes>
            0 -1 26 -4.6570514678023756e-04</internalNodes>
          <leafValues>
            2.7031871676445007e-01 -2.7426809072494507e-01</leafValues></_>
        <_>
          <internalNodes>
            0 -1 129 1.1683812364935875e-02</internalNodes>
          <leafValues>
            -4.8385122418403625e-01 1.4435079693794250e-01</leafValues></_>
        <_>
          <internalNodes>
            0 -1 94 1.2520451098680496e-02</internalNodes>
          <leafValues>
            -1.5832656621932983e-01 4.8315155506134033e-01</leafValues></_>
        <_>
          <internalNodes>
            0 -1 116 -3.8044072687625885e-02</internalNodes>
          <leafValues>
            -5.0266903638839722e-01 1.5734721720218658e-01</leafValues></_>
        <_>
          <internalNodes>
            0 -1 242 -8.0346511676907539e-03</internalNodes>
          <leafValues>
            -5.0100702047348022e-01 1.2503533065319061e-01</leafValues></_>
        <_>
          <internalNodes>
            0 -1 221 -1.2815601658076048e-03</internalNodes>
          <leafValues>
            -5.8840680122375488e-01 9.7525954246520996e-02</leafValues></_>
        <_>
          <internalNodes>
            0 -1 163 -1.9729952327907085e-03</internalNodes>
          <leafValues>
            4.3699243664741516e-01 -1.6850332915782928e-01</leafValues></_>
        <_>
          <internalNodes>
            0 -1 127 2.9868907295167446e-03</internalNodes>
          <leafValues>
            -1.6678470373153687e-01 4.5576542615890503e-01</leafValues></_>
        <_>
          <internalNodes>
            0 -1 178 3.2078824006021023e-03</internalNodes>
          <leafValues>
            1.1382746696472168e-01 -5.9288591146469116e-01</leafValues></_>
        <_>
          <internalNodes>
            0 -1 104 -9.7481518983840942e-02</internalNodes>
          <leafValues>
            6.5989121794700623e-02 -8.7797719240188599e-01</leafValues></_></weakClassifiers></_>
    <!-- stage 10 -->
    <_>
      <maxWeakCount>27</maxWeakCount>
      <stageThreshold>-1.6222389936447144e+00</stageThreshold>
      <weakClassifiers>
        <_>
          <internalNodes>
            0 -1 195 -8.2514956593513489e-02</internalNodes>
          <leafValues>
            2.0433436334133148e-01 -5.4658383131027222e-01</leafValues></_>
        <_>
          <internalNodes>
            0 -1 8 -2.7730348519980907e-03</internalNodes>
          <leafValues>
            2.9841840267181396e-01 -3.1483730673789978e-01</leafValues></_>
        <_>
          <internalNodes>
            0 -1 223 2.0173814147710800e-02</internalNodes>
          <leafValues>
            -1.7182052135467529e-01 4.6988582611083984e-01</leafValues></_>
        <_>
          <internalNodes>
            0 -1 92 -7.0126466453075409e-03</internalNodes>
          <leafValues>
            -5.8128619194030762e-01 1.3509553670883179e-01</leafValues></_>
        <_>
          <internalNodes>
            0 -1 91 1.9683981314301491e-02</internalNodes>
          <leafValues>
            1.2471448630094528e-01 -5.2316176891326904e-01</leafValues></_>
        <_>
          <internalNodes>
            0 -1 128 2.6725521311163902e-02</internalNodes>
          <leafValues>
            -2.7605056762695313e-01 2.6037129759788513e-01</leafValues></_>
        <_>
          <internalNodes>
            0 -1 51 -1.2658622860908508e-01</internalNodes>
          <leafValues>
            4.5325222611427307e-01 -1.3350181281566620e-01</leafValues></_>
        <_>
          <internalNodes>
            0 -1 244 2.3923940025269985e-03</internalNodes>
          <leafValues>
            1.0356590896844864e-01 -6.3067102432250977e-01</leafValues></_>
        <_>
          <internalNodes>
            0 -1 198 6.0515443328768015e-04</internalNodes>
          <leafValues>
            -2.8034555912017822e-01 2.3013353347778320e-01</leafValues></_>
        <_>
          <internalNodes>
            0 -1 65 -4.9300384707748890e-03</internalNodes>
          <leafValues>
            2.6837605237960815e-01 -2.3242534697055817e-01</leafValues></_>
        <_>
          <internalNodes>
            0 -1 159 -3.6838555242866278e-03</internalNodes>
          <leafValues>
            4.0202087163925171e-01 -1.3294364511966705e-01</leafValues></_>
        <_>
          <internalNodes>
            0 -1 17 -2.1661366336047649e-03</internalNodes>
          <leafValues>
            3.5931453108787537e-01 -1.6160947084426880e-01</leafValues></_>
        <_>
          <internalNodes>
            0 -1 235 9.3869827687740326e-03</internalNodes>
          <leafValues>
            7.9366900026798248e-02 -7.8439259529113770e-01</leafValues></_>
        <_>
          <internalNodes>
            0 -1 107 -1.0877560824155807e-02</internalNodes>
          <leafValues>
            -6.4910620450973511e-01 6.9569617509841919e-02</leafValues></_>
        <_>
          <internalNodes>
            0 -1 54 -4.7300534788519144e-04</internalNodes>
          <leafValues>
            -6.2400996685028076e-01 7.4211306869983673e-02</leafValues></_>
        <_>
          <internalNodes>
            0 -1 34 -2.2431140678236261e-05</internalNodes>
          <leafValues>
            1.9289644062519073e-01 -2.7696684002876282e-01</leafValues></_>
        <_>
          <internalNodes>
            0 -1 30 1.0177360847592354e-02</internalNodes>
          <leafValues>
            -1.0810741037130356e-01 5.6366145610809326e-01</leafValues></_>
        <_>
          <internalNodes>
            0 -1 61 -6.5877628512680531e-03</internalNodes>
          <leafValues>
            5.2880704402923584e-01 -1.1117702722549438e-01</leafValues></_>
        <_>
          <internalNodes>
            0 -1 156 -3.9841048419475555e-03</internalNodes>
          <leafValues>
            3.0435419082641602e-01 -2.0885255932807922e-01</leafValues></_>
        <_>
          <internalNodes>
            0 -1 166 1.5403008728753775e-04</internalNodes>
          <leafValues>
            1.0201080888509750e-01 -5.6228232383728027e-01</leafValues></_>
        <_>
          <internalNodes>
            0 -1 136 -2.5618388317525387e-03</internalNodes>
          <leafValues>
            4.4209802150726318e-01 -1.3374318182468414e-01</leafValues></_>
        <_>
          <internalNodes>
            0 -1 151 1.8541538156569004e-03</internalNodes>
          <leafValues>
            -1.6849248111248016e-01 3.3594587445259094e-01</leafValues></_>
        <_>
          <internalNodes>
            0 -1 154 3.3954670652747154e-04</internalNodes>
          <leafValues>
            1.0265851765871048e-01 -5.7694500684738159e-01</leafValues></_>
        <_>
          <internalNodes>
            0 -1 16 -1.7897477373480797e-02</internalNodes>
          <leafValues>
            4.9344110488891602e-01 -1.1921259015798569e-01</leafValues></_>
        <_>
          <internalNodes>
            0 -1 233 -5.1961238496005535e-03</internalNodes>
          <leafValues>
            -7.9893141984939575e-01 7.8040607273578644e-02</leafValues></_>
        <_>
          <internalNodes>
            0 -1 220 -1.1304997606202960e-03</internalNodes>
          <leafValues>
            3.6581960320472717e-01 -1.6049949824810028e-01</leafValues></_>
        <_>
          <internalNodes>
            0 -1 70 -2.5774231180548668e-03</internalNodes>
          <leafValues>
            1.4440497756004333e-01 -3.8757953047752380e-01</leafValues></_></weakClassifiers></_>
    <!-- stage 11 -->
    <_>
      <maxWeakCount>22</maxWeakCount>
      <stageThreshold>-1.4373338222503662e+00</stageThreshold>
      <weakClassifiers>
        <_>
          <internalNodes>
            0 -1 56 -2.4394847452640533e-02</internalNodes>
          <leafValues>
            -6.2240663915872574e-02 -6.0471975803375244e-01</leafValues></_>
        <_>
          <internalNodes>
            0 -1 216 2.1430153865367174e-03</internalNodes>
          <leafValues>
            -4.9325492978096008e-01 1.4645636081695557e-01</leafValues></_>
        <_>
          <internalNodes>
            0 -1 82 -1.0352779179811478e-02</internalNodes>
          <leafValues>
            -5.2677571773529053e-01 1.4390544593334198e-01</leafValues></_>
        <_>
          <internalNodes>
            0 -1 87 1.6303423792123795e-02</internalNodes>
          <leafValues>
            1.5513856709003448e-01 -5.7828396558761597e-01</leafValues></_>
        <_>
          <internalNodes>
            0 -1 48 6.5917158499360085e-03</internalNodes>
          <leafValues>
            -2.0078244805335999e-01 3.7757936120033264e-01</leafValues></_>
        <_>
          <internalNodes>
            0 -1 46 -5.6117847561836243e-03</internalNodes>
          <leafValues>
            -5.9288924932479858e-01 1.3076925277709961e-01</leafValues></_>
        <_>
          <internalNodes>
            0 -1 132 2.8537068516016006e-02</internalNodes>
          <leafValues>
            -1.5637640655040741e-01 4.8247045278549194e-01</leafValues></_>
        <_>
          <internalNodes>
            0 -1 133 -7.6361253857612610e-02</internalNodes>
          <leafValues>
            5.2354359626770020e-01 -1.1953932046890259e-01</leafValues></_>
        <_>
          <internalNodes>
            0 -1 0 -5.4366613039746881e-04</internalNodes>
          <leafValues>
            2.6902151107788086e-01 -2.2978465259075165e-01</leafValues></_>
        <_>
          <internalNodes>
            0 -1 185 -3.8773850537836552e-03</internalNodes>
          <leafValues>
            7.2943478822708130e-02 -6.6239994764328003e-01</leafValues></_>
        <_>
          <internalNodes>
            0 -1 191 -1.3824601192027330e-03</internalNodes>
          <leafValues>
            -1.2385141104459763e-01 5.2993750572204590e-01</leafValues></_>
        <_>
          <internalNodes>
            0 -1 47 -1.2208644766360521e-03</internalNodes>
          <leafValues>
            2.3005287349224091e-01 -2.3770442605018616e-01</leafValues></_>
        <_>
          <internalNodes>
            0 -1 206 -1.4982698485255241e-03</internalNodes>
          <leafValues>
            4.2885887622833252e-01 -1.3744157552719116e-01</leafValues></_>
        <_>
          <internalNodes>
            0 -1 109 2.8829190880060196e-02</internalNodes>
          <leafValues>
            -3.8684266805648804e-01 1.8039034307003021e-01</leafValues></_>
        <_>
          <internalNodes>
            0 -1 165 2.0342363859526813e-04</internalNodes>
          <leafValues>
            8.1448197364807129e-02 -6.9003528356552124e-01</leafValues></_>
        <_>
          <internalNodes>
            0 -1 9 4.9162939190864563e-02</internalNodes>
          <leafValues>
            6.1629369854927063e-02 -7.3054844141006470e-01</leafValues></_>
        <_>
          <internalNodes>
            0 -1 111 3.3698570914566517e-03</internalNodes>
          <leafValues>
            -1.0277899354696274e-01 5.9052681922912598e-01</leafValues></_>
        <_>
          <internalNodes>
            0 -1 123 -5.4877540096640587e-03</internalNodes>
          <leafValues>
            6.6026103496551514e-01 -8.3471558988094330e-02</leafValues></_>
        <_>
          <internalNodes>
            0 -1 210 -1.6173890326172113e-03</internalNodes>
          <leafValues>
            3.1758731603622437e-01 -1.6700015962123871e-01</leafValues></_>
        <_>
          <internalNodes>
            0 -1 218 -1.5515098348259926e-03</internalNodes>
          <leafValues>
            3.5679328441619873e-01 -1.6577661037445068e-01</leafValues></_>
        <_>
          <internalNodes>
            0 -1 53 1.6338173008989543e-04</internalNodes>
          <leafValues>
            8.3433039486408234e-02 -6.3450437784194946e-01</leafValues></_>
        <_>
          <internalNodes>
            0 -1 102 -2.6295729912817478e-03</internalNodes>
          <leafValues>
            3.8915562629699707e-01 -1.4574104547500610e-01</leafValues></_></weakClassifiers></_>
    <!-- stage 12 -->
    <_>
      <maxWeakCount>23</maxWeakCount>
      <stageThreshold>-1.4308782815933228e+00</stageThreshold>
      <weakClassifiers>
        <_>
          <internalNodes>
            0 -1 124 -1.3160406053066254e-01</internalNodes>
          <leafValues>
            9.0655505657196045e-02 -5.3366923332214355e-01</leafValues></_>
        <_>
          <internalNodes>
            0 -1 241 -7.7083786018192768e-03</internalNodes>
          <leafValues>
            -6.7239218950271606e-01 8.7070941925048828e-02</leafValues></_>
        <_>
          <internalNodes>
            0 -1 49 -4.7922562807798386e-03</internalNodes>
          <leafValues>
            2.4078832566738129e-01 -3.7992435693740845e-01</leafValues></_>
        <_>
          <internalNodes>
            0 -1 44 -4.7548111528158188e-02</internalNodes>
          <leafValues>
            7.9576838016510010e-01 -9.7549095749855042e-02</leafValues></_>
        <_>
          <internalNodes>
            0 -1 201 9.4774251920171082e-05</internalNodes>
          <leafValues>
            2.7598312497138977e-01 -2.7127799391746521e-01</leafValues></_>
        <_>
          <internalNodes>
            0 -1 32 -3.2560785766690969e-03</internalNodes>
          <leafValues>
            1.5356989204883575e-01 -4.5505151152610779e-01</leafValues></_>
        <_>
          <internalNodes>
            0 -1 3 3.3408801537007093e-03</internalNodes>
          <leafValues>
            -2.3169152438640594e-01 2.6916593313217163e-01</leafValues></_>
        <_>
          <internalNodes>
            0 -1 120 9.0276999399065971e-03</internalNodes>
          <leafValues>
            9.8098941147327423e-02 -5.8774125576019287e-01</leafValues></_>
        <_>
          <internalNodes>
            0 -1 186 -5.7472265325486660e-04</internalNodes>
          <leafValues>
            -6.0546052455902100e-01 9.5114789903163910e-02</leafValues></_>
        <_>
          <internalNodes>
            0 -1 99 8.7519502267241478e-03</internalNodes>
          <leafValues>
            1.1680374294519424e-01 -4.9312725663185120e-01</leafValues></_>
        <_>
          <internalNodes>
            0 -1 67 6.0075633227825165e-03</internalNodes>
          <leafValues>
            -1.7232120037078857e-01 3.5047072172164917e-01</leafValues></_>
        <_>
          <internalNodes>
            0 -1 225 -9.3346107751131058e-03</internalNodes>
          <leafValues>
            4.9614411592483521e-01 -1.3350616395473480e-01</leafValues></_>
        <_>
          <internalNodes>
            0 -1 113 -6.0712024569511414e-03</internalNodes>
          <leafValues>
            -4.7480890154838562e-01 1.1987267434597015e-01</leafValues></_>
        <_>
          <internalNodes>
            0 -1 140 3.4000906161963940e-03</internalNodes>
          <leafValues>
            7.4834786355495453e-02 -7.0350253582000732e-01</leafValues></_>
        <_>
          <internalNodes>
            0 -1 50 4.2918329127132893e-03</internalNodes>
          <leafValues>
            -1.0492584854364395e-01 6.1035501956939697e-01</leafValues></_>
        <_>
          <internalNodes>
            0 -1 66 9.4919116236269474e-05</internalNodes>
          <leafValues>
            1.3340494036674500e-01 -4.6663632988929749e-01</leafValues></_>
        <_>
          <internalNodes>
            0 -1 19 1.2430195929482579e-03</internalNodes>
          <leafValues>
            -1.3910168409347534e-01 4.3577584624290466e-01</leafValues></_>
        <_>
          <internalNodes>
            0 -1 63 4.7463096678256989e-02</internalNodes>
          <leafValues>
            -5.7955931872129440e-02 7.7024233341217041e-01</leafValues></_>
        <_>
          <internalNodes>
            0 -1 157 4.7844892833381891e-04</internalNodes>
          <leafValues>
            -4.2976576089859009e-01 1.4739516377449036e-01</leafValues></_>
        <_>
          <internalNodes>
            0 -1 18 5.2821338176727295e-03</internalNodes>
          <leafValues>
            -1.8959300220012665e-01 3.2572245597839355e-01</leafValues></_>
        <_>
          <internalNodes>
            0 -1 161 -3.0314279720187187e-02</internalNodes>
          <leafValues>
            8.9571379125118256e-02 -6.4614886045455933e-01</leafValues></_>
        <_>
          <internalNodes>
            0 -1 12 -7.0626273751258850e-02</internalNodes>
          <leafValues>
            -6.9667279720306396e-01 5.9288047254085541e-02</leafValues></_>
        <_>
          <internalNodes>
            0 -1 110 8.9068785309791565e-02</internalNodes>
          <leafValues>
            5.9838555753231049e-02 -7.2387349605560303e-01</leafValues></_></weakClassifiers></_>
    <!-- stage 13 -->
    <_>
      <maxWeakCount>30</maxWeakCount>
      <stageThreshold>-1.5907200574874878e+00</stageThreshold>
      <weakClassifiers>
        <_>
          <internalNodes>
            0 -1 11 7.1998289786279202e-03</internalNodes>
          <leafValues>
            -5.1949799060821533e-01 8.8191330432891846e-02</leafValues></_>
        <_>
          <internalNodes>
            0 -1 117 2.5593396276235580e-02</internalNodes>
          <leafValues>
            -4.5240759849548340e-01 1.6595447063446045e-01</leafValues></_>
        <_>
          <internalNodes>
            0 -1 184 -2.0423131063580513e-03</internalNodes>
          <leafValues>
            2.0847493410110474e-01 -3.3418521285057068e-01</leafValues></_>
        <_>
          <internalNodes>
            0 -1 189 -1.0697903484106064e-01</internalNodes>
          <leafValues>
            4.3919563293457031e-01 -1.2946808338165283e-01</leafValues></_>
        <_>
          <internalNodes>
            0 -1 142 3.1147007830440998e-03</internalNodes>
          <leafValues>
            7.9694971442222595e-02 -6.4277935028076172e-01</leafValues></_>
        <_>
          <internalNodes>
            0 -1 42 -1.0788557119667530e-03</internalNodes>
          <leafValues>
            1.6430662572383881e-01 -3.6443036794662476e-01</leafValues></_>
        <_>
          <internalNodes>
            0 -1 175 -4.8718586564064026e-02</internalNodes>
          <leafValues>
            5.4378509521484375e-01 -1.2162533402442932e-01</leafValues></_>
        <_>
          <internalNodes>
            0 -1 202 3.8738031871616840e-03</internalNodes>
          <leafValues>
            -1.0111199319362640e-01 5.0697481632232666e-01</leafValues></_>
        <_>
          <internalNodes>
            0 -1 174 2.8847402063547634e-05</internalNodes>
          <leafValues>
            -3.8136628270149231e-01 1.4713068306446075e-01</leafValues></_>
        <_>
          <internalNodes>
            0 -1 4 -5.2706789225339890e-02</internalNodes>
          <leafValues>
            -6.9217061996459961e-01 6.5386652946472168e-02</leafValues></_>
        <_>
          <internalNodes>
            0 -1 158 -9.0204254956915975e-04</internalNodes>
          <leafValues>
            3.5397958755493164e-01 -1.4247396588325500e-01</leafValues></_>
        <_>
          <internalNodes>
            0 -1 146 -9.0728157374542207e-05</internalNodes>
          <leafValues>
            -4.8987156152725220e-01 1.0684668272733688e-01</leafValues></_>
        <_>
          <internalNodes>
            0 -1 160 2.1388023742474616e-04</internalNodes>
          <leafValues>
            7.6485462486743927e-02 -6.2305867671966553e-01</leafValues></_>
        <_>
          <internalNodes>
            0 -1 188 -7.5901541858911514e-03</internalNodes>
          <leafValues>
            2.7237340807914734e-01 -1.8248707056045532e-01</leafValues></_>
        <_>
          <internalNodes>
            0 -1 24 -2.0387872064020485e-04</internalNodes>
          <leafValues>
            2.0588253438472748e-01 -2.3748801648616791e-01</leafValues></_>
        <_>
          <internalNodes>
            0 -1 224 -6.9445022381842136e-04</internalNodes>
          <leafValues>
            3.3392244577407837e-01 -1.4686197042465210e-01</leafValues></_>
        <_>
          <internalNodes>
            0 -1 131 -6.3347874674946070e-04</internalNodes>
          <leafValues>
            -5.3642821311950684e-01 1.0094332695007324e-01</leafValues></_>
        <_>
          <internalNodes>
            0 -1 222 9.7104132873937488e-04</internalNodes>
          <leafValues>
            -1.4549686014652252e-01 3.7873128056526184e-01</leafValues></_>
        <_>
          <internalNodes>
            0 -1 238 -1.2702450621873140e-03</internalNodes>
          <leafValues>
            -7.8537303209304810e-01 6.6446505486965179e-02</leafValues></_>
        <_>
          <internalNodes>
            0 -1 81 -2.0273020491003990e-03</internalNodes>
          <leafValues>
            3.2259401679039001e-01 -1.6408637166023254e-01</leafValues></_>
        <_>
          <internalNodes>
            0 -1 73 2.0395196042954922e-03</internalNodes>
          <leafValues>
            -1.1909221112728119e-01 5.1920062303543091e-01</leafValues></_>
        <_>
          <internalNodes>
            0 -1 172 -7.6053097844123840e-02</internalNodes>
          <leafValues>
            6.8035088479518890e-02 -9.4803732633590698e-01</leafValues></_>
        <_>
          <internalNodes>
            0 -1 115 -2.5226712226867676e-02</internalNodes>
          <leafValues>
            -8.5049003362655640e-01 4.3254867196083069e-02</leafValues></_>
        <_>
          <internalNodes>
            0 -1 237 -1.0781363816931844e-03</internalNodes>
          <leafValues>
            -3.6846607923507690e-01 1.4165464043617249e-01</leafValues></_>
        <_>
          <internalNodes>
            0 -1 229 1.9456147128948942e-05</internalNodes>
          <leafValues>
            -3.4226399660110474e-01 1.2760998308658600e-01</leafValues></_>
        <_>
          <internalNodes>
            0 -1 29 -7.9616816947236657e-04</internalNodes>
          <leafValues>
            3.4071171283721924e-01 -1.4538308978080750e-01</leafValues></_>
        <_>
          <internalNodes>
            0 -1 232 -1.3293812517076731e-03</internalNodes>
          <leafValues>
            4.2725709080696106e-01 -9.8952040076255798e-02</leafValues></_>
        <_>
          <internalNodes>
            0 -1 230 -2.8552226722240448e-02</internalNodes>
          <leafValues>
            7.5954681634902954e-01 -5.4977495223283768e-02</leafValues></_>
        <_>
          <internalNodes>
            0 -1 137 9.5159339252859354e-04</internalNodes>
          <leafValues>
            9.9190704524517059e-02 -5.7308173179626465e-01</leafValues></_>
        <_>
          <internalNodes>
            0 -1 169 3.0426629818975925e-03</internalNodes>
          <leafValues>
            -1.3765789568424225e-01 3.6903154850006104e-01</leafValues></_></weakClassifiers></_>
    <!-- stage 14 -->
    <_>
      <maxWeakCount>30</maxWeakCount>
      <stageThreshold>-1.4711141586303711e+00</stageThreshold>
      <weakClassifiers>
        <_>
          <internalNodes>
            0 -1 83 1.7804736271500587e-02</internalNodes>
          <leafValues>
            -4.4597104191780090e-01 4.8792269825935364e-01</leafValues></_>
        <_>
          <internalNodes>
            0 -1 215 9.7623420879244804e-03</internalNodes>
          <leafValues>
            -4.5387443900108337e-01 1.0232098400592804e-01</leafValues></_>
        <_>
          <internalNodes>
            0 -1 173 6.6371192224323750e-04</internalNodes>
          <leafValues>
            -2.8361660242080688e-01 2.2618712484836578e-01</leafValues></_>
        <_>
          <internalNodes>
            0 -1 125 -9.3548614531755447e-03</internalNodes>
          <leafValues>
            2.5666087865829468e-01 -2.8188735246658325e-01</leafValues></_>
        <_>
          <internalNodes>
            0 -1 31 -5.7651825249195099e-02</internalNodes>
          <leafValues>
            4.3506985902786255e-01 -2.0746991038322449e-01</leafValues></_>
        <_>
          <internalNodes>
            0 -1 6 -4.4018901884555817e-02</internalNodes>
          <leafValues>
            2.7692806720733643e-01 -2.6413464546203613e-01</leafValues></_>
        <_>
          <internalNodes>
            0 -1 58 -1.0850993543863297e-01</internalNodes>
          <leafValues>
            5.7849574089050293e-01 -9.5617637038230896e-02</leafValues></_>
        <_>
          <internalNodes>
            0 -1 236 -3.0115784611552954e-03</internalNodes>
          <leafValues>
            -4.9327895045280457e-01 1.0079623013734818e-01</leafValues></_>
        <_>
          <internalNodes>
            0 -1 231 2.1935687400400639e-03</internalNodes>
          <leafValues>
            -2.2025786340236664e-01 2.8683319687843323e-01</leafValues></_>
        <_>
          <internalNodes>
            0 -1 68 8.8215900177601725e-05</internalNodes>
          <leafValues>
            9.3601554632186890e-02 -4.8939761519432068e-01</leafValues></_>
        <_>
          <internalNodes>
            0 -1 204 1.4285409997683018e-04</internalNodes>
          <leafValues>
            -3.0931556224822998e-01 1.5147975087165833e-01</leafValues></_>
        <_>
          <internalNodes>
            0 -1 5 -6.3818722963333130e-02</internalNodes>
          <leafValues>
            -6.6872328519821167e-01 6.5617255866527557e-02</leafValues></_>
        <_>
          <internalNodes>
            0 -1 209 -4.5811617746949196e-03</internalNodes>
          <leafValues>
            3.4869316220283508e-01 -1.4469793438911438e-01</leafValues></_>
        <_>
          <internalNodes>
            0 -1 217 -1.5625350642949343e-03</internalNodes>
          <leafValues>
            3.6248457431793213e-01 -1.4679758250713348e-01</leafValues></_>
        <_>
          <internalNodes>
            0 -1 138 -1.2546099722385406e-02</internalNodes>
          <leafValues>
            -6.9996589422225952e-01 7.3733955621719360e-02</leafValues></_>
        <_>
          <internalNodes>
            0 -1 74 7.4494304135441780e-03</internalNodes>
          <leafValues>
            -1.1310983449220657e-01 4.7413766384124756e-01</leafValues></_>
        <_>
          <internalNodes>
            0 -1 126 -3.6118780262768269e-03</internalNodes>
          <leafValues>
            4.3942666053771973e-01 -1.1393723636865616e-01</leafValues></_>
        <_>
          <internalNodes>
            0 -1 118 -5.6584889534860849e-04</internalNodes>
          <leafValues>
            -6.3378226757049561e-01 8.9543640613555908e-02</leafValues></_>
        <_>
          <internalNodes>
            0 -1 168 -1.3842703774571419e-03</internalNodes>
          <leafValues>
            3.8981866836547852e-01 -1.3819968700408936e-01</leafValues></_>
        <_>
          <internalNodes>
            0 -1 22 -7.4395826086401939e-03</internalNodes>
          <leafValues>
            -7.2512114048004150e-01 7.3331341147422791e-02</leafValues></_>
        <_>
          <internalNodes>
            0 -1 144 7.6888035982847214e-04</internalNodes>
          <leafValues>
            9.9591329693794250e-02 -4.3447628617286682e-01</leafValues></_>
        <_>
          <internalNodes>
            0 -1 114 -5.0466237589716911e-03</internalNodes>
          <leafValues>
            -4.8294630646705627e-01 9.2269100248813629e-02</leafValues></_>
        <_>
          <internalNodes>
            0 -1 193 -1.4900472015142441e-03</internalNodes>
          <leafValues>
            2.9288148880004883e-01 -1.6326157748699188e-01</leafValues></_>
        <_>
          <internalNodes>
            0 -1 226 -4.2514881351962686e-04</internalNodes>
          <leafValues>
            3.4147924184799194e-01 -1.3851852715015411e-01</leafValues></_>
        <_>
          <internalNodes>
            0 -1 20 -6.9431653246283531e-03</internalNodes>
          <leafValues>
            1.7697972059249878e-01 -2.5995579361915588e-01</leafValues></_>
        <_>
          <internalNodes>
            0 -1 207 -1.5879184938967228e-03</internalNodes>
          <leafValues>
            3.7281459569931030e-01 -1.3824529945850372e-01</leafValues></_>
        <_>
          <internalNodes>
            0 -1 80 7.9722038935869932e-04</internalNodes>
          <leafValues>
            8.4855668246746063e-02 -5.3574198484420776e-01</leafValues></_>
        <_>
          <internalNodes>
            0 -1 203 5.9805382043123245e-03</internalNodes>
          <leafValues>
            -1.4823259413242340e-01 3.1444680690765381e-01</leafValues></_>
        <_>
          <internalNodes>
            0 -1 243 1.2417754158377647e-02</internalNodes>
          <leafValues>
            6.5210737287998199e-02 -7.7588158845901489e-01</leafValues></_>
        <_>
          <internalNodes>
            0 -1 1 -2.0779585465788841e-03</internalNodes>
          <leafValues>
            2.4728071689605713e-01 -1.9111655652523041e-01</leafValues></_></weakClassifiers></_></stages>
  <features>
    <_>
      <rects>
        <_>
          0 0 2 11 -1.</_>
        <_>
          1 0 1 11 2.</_></rects>
      <tilted>0</tilted></_>
    <_>
      <rects>
        <_>
          0 0 4 8 -1.</_>
        <_>
          0 0 2 4 2.</_>
        <_>
          2 4 2 4 2.</_></rects>
      <tilted>0</tilted></_>
    <_>
      <rects>
        <_>
          0 0 4 30 -1.</_>
        <_>
          0 15 4 15 2.</_></rects>
      <tilted>0</tilted></_>
    <_>
      <rects>
        <_>
          0 0 12 2 -1.</_>
        <_>
          6 0 6 2 2.</_></rects>
      <tilted>0</tilted></_>
    <_>
      <rects>
        <_>
          0 0 7 8 -1.</_>
        <_>
          0 4 7 4 2.</_></rects>
      <tilted>0</tilted></_>
    <_>
      <rects>
        <_>
          0 0 7 10 -1.</_>
        <_>
          0 5 7 5 2.</_></rects>
      <tilted>0</tilted></_>
    <_>
      <rects>
        <_>
          0 0 13 8 -1.</_>
        <_>
          0 4 13 4 2.</_></rects>
      <tilted>0</tilted></_>
    <_>
      <rects>
        <_>
          0 0 17 8 -1.</_>
        <_>
          0 4 17 4 2.</_></rects>
      <tilted>0</tilted></_>
    <_>
      <rects>
        <_>
          0 1 4 8 -1.</_>
        <_>
          2 1 2 8 2.</_></rects>
      <tilted>0</tilted></_>
    <_>
      <rects>
        <_>
          0 1 6 18 -1.</_>
        <_>
          0 10 6 9 2.</_></rects>
      <tilted>0</tilted></_>
    <_>
      <rects>
        <_>
          0 2 4 5 -1.</_>
        <_>
          2 2 2 5 2.</_></rects>
      <tilted>0</tilted></_>
    <_>
      <rects>
        <_>
          0 2 4 14 -1.</_>
        <_>
          0 2 2 7 2.</_>
        <_>
          2 9 2 7 2.</_></rects>
      <tilted>0</tilted></_>
    <_>
      <rects>
        <_>
          0 2 3 28 -1.</_>
        <_>
          0 16 3 14 2.</_></rects>
      <tilted>0</tilted></_>
    <_>
      <rects>
        <_>
          0 2 12 28 -1.</_>
        <_>
          0 16 12 14 2.</_></rects>
      <tilted>0</tilted></_>
    <_>
      <rects>
        <_>
          0 3 4 6 -1.</_>
        <_>
          2 3 2 6 2.</_></rects>
      <tilted>0</tilted></_>
    <_>
      <rects>
        <_>
          0 3 26 3 -1.</_>
        <_>
          13 3 13 3 2.</_></rects>
      <tilted>0</tilted></_>
    <_>
      <rects>
        <_>
          0 4 10 12 -1.</_>
        <_>
          0 4 5 6 2.</_>
        <_>
          5 10 5 6 2.</_></rects>
      <tilted>0</tilted></_>
    <_>
      <rects>
        <_>
          0 7 4 10 -1.</_>
        <_>
          0 7 2 5 2.</_>
        <_>
          2 12 2 5 2.</_></rects>
      <tilted>0</tilted></_>
    <_>
      <rects>
        <_>
          0 7 12 6 -1.</_>
        <_>
          0 7 6 3 2.</_>
        <_>
          6 10 6 3 2.</_></rects>
      <tilted>0</tilted></_>
    <_>
      <rects>
        <_>
          0 13 2 12 -1.</_>
        <_>
          0 13 1 6 2.</_>
        <_>
          1 19 1 6 2.</_></rects>
      <tilted>0</tilted></_>
    <_>
      <rects>
        <_>
          0 15 7 8 -1.</_>
        <_>
          0 19 7 4 2.</_></rects>
      <tilted>0</tilted></_>
    <_>
      <rects>
        <_>
          0 16 30 5 -1.</_>
        <_>
          15 16 15 5 2.</_></rects>
      <tilted>0</tilted></_>
    <_>
      <rects>
        <_>
          0 18 4 4 -1.</_>
        <_>
          0 20 4 2 2.</_></rects>
      <tilted>0</tilted></_>
    <_>
      <rects>
        <_>
          0 25 2 5 -1.</_>
        <_>
          1 25 1 5 2.</_></rects>
      <tilted>0</tilted></_>
    <_>
      <rects>
        <_>
          0 26 2 4 -1.</_>
        <_>
          1 26 1 4 2.</_></rects>
      <tilted>0</tilted></_>
    <_>
      <rects>
        <_>
          0 28 4 2 -1.</_>
        <_>
          2 28 2 2 2.</_></rects>
      <tilted>0</tilted></_>
    <_>
      <rects>
        <_>
          0 29 6 1 -1.</_>
        <_>
          3 29 3 1 2.</_></rects>
      <tilted>0</tilted></_>
    <_>
      <rects>
        <_>
          1 0 1 27 -1.</_>
        <_>
          1 9 1 9 2.</_></rects>
      <tilted>0</tilted></_>
    <_>
      <rects>
        <_>
          1 9 26 16 -1.</_>
        <_>
          1 17 26 8 2.</_></rects>
      <tilted>0</tilted></_>
    <_>
      <rects>
        <_>
          1 11 4 4 -1.</_>
        <_>
          1 11 2 2 2.</_>
        <_>
          3 13 2 2 2.</_></rects>
      <tilted>0</tilted></_>
    <_>
      <rects>
        <_>
          1 11 21 2 -1.</_>
        <_>
          1 12 21 1 2.</_></rects>
      <tilted>0</tilted></_>
    <_>
      <rects>
        <_>
          1 11 22 6 -1.</_>
        <_>
          1 14 22 3 2.</_></rects>
      <tilted>0</tilted></_>
    <_>
      <rects>
        <_>
          1 14 7 8 -1.</_>
        <_>
          1 18 7 4 2.</_></rects>
      <tilted>0</tilted></_>
    <_>
      <rects>
        <_>
          1 16 19 8 -1.</_>
        <_>
          1 20 19 4 2.</_></rects>
      <tilted>0</tilted></_>
    <_>
      <rects>
        <_>
          1 27 2 1 -1.</_>
        <_>
          2 27 1 1 2.</_></rects>
      <tilted>0</tilted></_>
    <_>
      <rects>
        <_>
          1 28 1 2 -1.</_>
        <_>
          1 29 1 1 2.</_></rects>
      <tilted>0</tilted></_>
    <_>
      <rects>
        <_>
          2 0 2 23 -1.</_>
        <_>
          3 0 1 23 2.</_></rects>
      <tilted>0</tilted></_>
    <_>
      <rects>
        <_>
          2 0 7 6 -1.</_>
        <_>
          2 3 7 3 2.</_></rects>
      <tilted>0</tilted></_>
    <_>
      <rects>
        <_>
          2 0 7 8 -1.</_>
        <_>
          2 4 7 4 2.</_></rects>
      <tilted>0</tilted></_>
    <_>
      <rects>
        <_>
          2 0 13 8 -1.</_>
        <_>
          2 4 13 4 2.</_></rects>
      <tilted>0</tilted></_>
    <_>
      <rects>
        <_>
          2 0 16 8 -1.</_>
        <_>
          2 4 16 4 2.</_></rects>
      <tilted>0</tilted></_>
    <_>
      <rects>
        <_>
          2 2 11 28 -1.</_>
        <_>
          2 16 11 14 2.</_></rects>
      <tilted>0</tilted></_>
    <_>
      <rects>
        <_>
          2 3 6 4 -1.</_>
        <_>
          2 5 6 2 2.</_></rects>
      <tilted>0</tilted></_>
    <_>
      <rects>
        <_>
          2 3 26 13 -1.</_>
        <_>
          15 3 13 13 2.</_></rects>
      <tilted>0</tilted></_>
    <_>
      <rects>
        <_>
          2 10 21 4 -1.</_>
        <_>
          2 12 21 2 2.</_></rects>
      <tilted>0</tilted></_>
    <_>
      <rects>
        <_>
          2 11 24 6 -1.</_>
        <_>
          2 14 24 3 2.</_></rects>
      <tilted>0</tilted></_>
    <_>
      <rects>
        <_>
          2 17 1 3 -1.</_>
        <_>
          2 18 1 1 2.</_></rects>
      <tilted>0</tilted></_>
    <_>
      <rects>
        <_>
          2 18 2 6 -1.</_>
        <_>
          2 21 2 3 2.</_></rects>
      <tilted>0</tilted></_>
    <_>
      <rects>
        <_>
          2 28 25 2 -1.</_>
        <_>
          2 29 25 1 2.</_></rects>
      <tilted>0</tilted></_>
    <_>
      <rects>
        <_>
          3 0 4 6 -1.</_>
        <_>
          3 3 4 3 2.</_></rects>
      <tilted>0</tilted></_>
    <_>
      <rects>
        <_>
          3 2 17 2 -1.</_>
        <_>
          3 3 17 1 2.</_></rects>
      <tilted>0</tilted></_>
    <_>
      <rects>
        <_>
          3 10 22 10 -1.</_>
        <_>
          3 15 22 5 2.</_></rects>
      <tilted>0</tilted></_>
    <_>
      <rects>
        <_>
          3 12 22 16 -1.</_>
        <_>
          3 20 22 8 2.</_></rects>
      <tilted>0</tilted></_>
    <_>
      <rects>
        <_>
          3 28 2 2 -1.</_>
        <_>
          3 28 1 1 2.</_>
        <_>
          4 29 1 1 2.</_></rects>
      <tilted>0</tilted></_>
    <_>
      <rects>
        <_>
          3 28 4 2 -1.</_>
        <_>
          3 28 2 1 2.</_>
        <_>
          5 29 2 1 2.</_></rects>
      <tilted>0</tilted></_>
    <_>
      <rects>
        <_>
          3 28 25 2 -1.</_>
        <_>
          3 29 25 1 2.</_></rects>
      <tilted>0</tilted></_>
    <_>
      <rects>
        <_>
          4 0 9 6 -1.</_>
        <_>
          4 3 9 3 2.</_></rects>
      <tilted>0</tilted></_>
    <_>
      <rects>
        <_>
          4 0 18 21 -1.</_>
        <_>
          13 0 9 21 2.</_></rects>
      <tilted>0</tilted></_>
    <_>
      <rects>
        <_>
          4 5 22 10 -1.</_>
        <_>
          4 10 22 5 2.</_></rects>
      <tilted>0</tilted></_>
    <_>
      <rects>
        <_>
          4 8 21 8 -1.</_>
        <_>
          4 12 21 4 2.</_></rects>
      <tilted>0</tilted></_>
    <_>
      <rects>
        <_>
          4 9 21 4 -1.</_>
        <_>
          4 11 21 2 2.</_></rects>
      <tilted>0</tilted></_>
    <_>
      <rects>
        <_>
          4 10 22 2 -1.</_>
        <_>
          4 11 22 1 2.</_></rects>
      <tilted>0</tilted></_>
    <_>
      <rects>
        <_>
          4 10 22 8 -1.</_>
        <_>
          4 14 22 4 2.</_></rects>
      <tilted>0</tilted></_>
    <_>
      <rects>
        <_>
          4 11 11 6 -1.</_>
        <_>
          4 14 11 3 2.</_></rects>
      <tilted>0</tilted></_>
    <_>
      <rects>
        <_>
          4 12 22 12 -1.</_>
        <_>
          4 18 22 6 2.</_></rects>
      <tilted>0</tilted></_>
    <_>
      <rects>
        <_>
          4 20 13 4 -1.</_>
        <_>
          4 22 13 2 2.</_></rects>
      <tilted>0</tilted></_>
    <_>
      <rects>
        <_>
          4 28 2 2 -1.</_>
        <_>
          4 28 1 1 2.</_>
        <_>
          5 29 1 1 2.</_></rects>
      <tilted>0</tilted></_>
    <_>
      <rects>
        <_>
          4 28 21 2 -1.</_>
        <_>
          4 29 21 1 2.</_></rects>
      <tilted>0</tilted></_>
    <_>
      <rects>
        <_>
          4 29 2 1 -1.</_>
        <_>
          5 29 1 1 2.</_></rects>
      <tilted>0</tilted></_>
    <_>
      <rects>
        <_>
          5 10 24 16 -1.</_>
        <_>
          5 18 24 8 2.</_></rects>
      <tilted>0</tilted></_>
    <_>
      <rects>
        <_>
          5 15 15 6 -1.</_>
        <_>
          5 18 15 3 2.</_></rects>
      <tilted>0</tilted></_>
    <_>
      <rects>
        <_>
          5 28 2 2 -1.</_>
        <_>
          5 28 1 1 2.</_>
        <_>
          6 29 1 1 2.</_></rects>
      <tilted>0</tilted></_>
    <_>
      <rects>
        <_>
          6 0 4 4 -1.</_>
        <_>
          6 2 4 2 2.</_></rects>
      <tilted>0</tilted></_>
    <_>
      <rects>
        <_>
          6 0 5 2 -1.</_>
        <_>
          6 1 5 1 2.</_></rects>
      <tilted>0</tilted></_>
    <_>
      <rects>
        <_>
          6 0 22 2 -1.</_>
        <_>
          6 1 22 1 2.</_></rects>
      <tilted>0</tilted></_>
    <_>
      <rects>
        <_>
          6 2 12 10 -1.</_>
        <_>
          6 2 6 5 2.</_>
        <_>
          12 7 6 5 2.</_></rects>
      <tilted>0</tilted></_>
    <_>
      <rects>
        <_>
          6 7 19 12 -1.</_>
        <_>
          6 13 19 6 2.</_></rects>
      <tilted>0</tilted></_>
    <_>
      <rects>
        <_>
          6 8 18 8 -1.</_>
        <_>
          6 12 18 4 2.</_></rects>
      <tilted>0</tilted></_>
    <_>
      <rects>
        <_>
          6 8 20 20 -1.</_>
        <_>
          6 18 20 10 2.</_></rects>
      <tilted>0</tilted></_>
    <_>
      <rects>
        <_>
          6 9 9 8 -1.</_>
        <_>
          6 13 9 4 2.</_></rects>
      <tilted>0</tilted></_>
    <_>
      <rects>
        <_>
          6 28 4 2 -1.</_>
        <_>
          8 28 2 2 2.</_></rects>
      <tilted>0</tilted></_>
    <_>
      <rects>
        <_>
          7 0 1 4 -1.</_>
        <_>
          7 2 1 2 2.</_></rects>
      <tilted>0</tilted></_>
    <_>
      <rects>
        <_>
          7 2 14 10 -1.</_>
        <_>
          7 2 7 5 2.</_>
        <_>
          14 7 7 5 2.</_></rects>
      <tilted>0</tilted></_>
    <_>
      <rects>
        <_>
          7 11 18 2 -1.</_>
        <_>
          7 12 18 1 2.</_></rects>
      <tilted>0</tilted></_>
    <_>
      <rects>
        <_>
          7 18 3 8 -1.</_>
        <_>
          7 22 3 4 2.</_></rects>
      <tilted>0</tilted></_>
    <_>
      <rects>
        <_>
          8 0 2 8 -1.</_>
        <_>
          8 4 2 4 2.</_></rects>
      <tilted>0</tilted></_>
    <_>
      <rects>
        <_>
          8 0 15 7 -1.</_>
        <_>
          13 0 5 7 2.</_></rects>
      <tilted>0</tilted></_>
    <_>
      <rects>
        <_>
          8 1 12 14 -1.</_>
        <_>
          8 1 6 7 2.</_>
        <_>
          14 8 6 7 2.</_></rects>
      <tilted>0</tilted></_>
    <_>
      <rects>
        <_>
          8 4 20 24 -1.</_>
        <_>
          18 4 10 24 2.</_></rects>
      <tilted>0</tilted></_>
    <_>
      <rects>
        <_>
          8 5 22 12 -1.</_>
        <_>
          19 5 11 12 2.</_></rects>
      <tilted>0</tilted></_>
    <_>
      <rects>
        <_>
          8 6 16 10 -1.</_>
        <_>
          8 11 16 5 2.</_></rects>
      <tilted>0</tilted></_>
    <_>
      <rects>
        <_>
          8 14 10 16 -1.</_>
        <_>
          13 14 5 16 2.</_></rects>
      <tilted>0</tilted></_>
    <_>
      <rects>
        <_>
          8 16 16 11 -1.</_>
        <_>
          16 16 8 11 2.</_></rects>
      <tilted>0</tilted></_>
    <_>
      <rects>
        <_>
          8 18 12 5 -1.</_>
        <_>
          12 18 4 5 2.</_></rects>
      <tilted>0</tilted></_>
    <_>
      <rects>
        <_>
          8 26 10 4 -1.</_>
        <_>
          8 28 10 2 2.</_></rects>
      <tilted>0</tilted></_>
    <_>
      <rects>
        <_>
          8 28 2 2 -1.</_>
        <_>
          9 28 1 2 2.</_></rects>
      <tilted>0</tilted></_>
    <_>
      <rects>
        <_>
          8 29 2 1 -1.</_>
        <_>
          9 29 1 1 2.</_></rects>
      <tilted>0</tilted></_>
    <_>
      <rects>
        <_>
          9 4 3 4 -1.</_>
        <_>
          9 6 3 2 2.</_></rects>
      <tilted>0</tilted></_>
    <_>
      <rects>
        <_>
          9 7 16 3 -1.</_>
        <_>
          17 7 8 3 2.</_></rects>
      <tilted>0</tilted></_>
    <_>
      <rects>
        <_>
          9 9 12 12 -1.</_>
        <_>
          9 9 6 6 2.</_>
        <_>
          15 15 6 6 2.</_></rects>
      <tilted>0</tilted></_>
    <_>
      <rects>
        <_>
          9 19 15 8 -1.</_>
        <_>
          14 19 5 8 2.</_></rects>
      <tilted>0</tilted></_>
    <_>
      <rects>
        <_>
          9 20 1 3 -1.</_>
        <_>
          9 21 1 1 2.</_></rects>
      <tilted>0</tilted></_>
    <_>
      <rects>
        <_>
          9 24 12 2 -1.</_>
        <_>
          9 25 12 1 2.</_></rects>
      <tilted>0</tilted></_>
    <_>
      <rects>
        <_>
          10 0 3 8 -1.</_>
        <_>
          10 4 3 4 2.</_></rects>
      <tilted>0</tilted></_>
    <_>
      <rects>
        <_>
          10 0 12 7 -1.</_>
        <_>
          14 0 4 7 2.</_></rects>
      <tilted>0</tilted></_>
    <_>
      <rects>
        <_>
          10 3 15 1 -1.</_>
        <_>
          15 3 5 1 2.</_></rects>
      <tilted>0</tilted></_>
    <_>
      <rects>
        <_>
          10 4 2 26 -1.</_>
        <_>
          10 17 2 13 2.</_></rects>
      <tilted>0</tilted></_>
    <_>
      <rects>
        <_>
          10 5 10 8 -1.</_>
        <_>
          10 5 5 4 2.</_>
        <_>
          15 9 5 4 2.</_></rects>
      <tilted>0</tilted></_>
    <_>
      <rects>
        <_>
          10 5 20 12 -1.</_>
        <_>
          20 5 10 12 2.</_></rects>
      <tilted>0</tilted></_>
    <_>
      <rects>
        <_>
          10 6 20 9 -1.</_>
        <_>
          20 6 10 9 2.</_></rects>
      <tilted>0</tilted></_>
    <_>
      <rects>
        <_>
          10 8 20 6 -1.</_>
        <_>
          20 8 10 6 2.</_></rects>
      <tilted>0</tilted></_>
    <_>
      <rects>
        <_>
          10 9 4 2 -1.</_>
        <_>
          10 10 4 1 2.</_></rects>
      <tilted>0</tilted></_>
    <_>
      <rects>
        <_>
          10 10 8 11 -1.</_>
        <_>
          14 10 4 11 2.</_></rects>
      <tilted>0</tilted></_>
    <_>
      <rects>
        <_>
          10 15 8 13 -1.</_>
        <_>
          14 15 4 13 2.</_></rects>
      <tilted>0</tilted></_>
    <_>
      <rects>
        <_>
          10 18 8 10 -1.</_>
        <_>
          14 18 4 10 2.</_></rects>
      <tilted>0</tilted></_>
    <_>
      <rects>
        <_>
          10 20 12 1 -1.</_>
        <_>
          14 20 4 1 2.</_></rects>
      <tilted>0</tilted></_>
    <_>
      <rects>
        <_>
          10 21 12 2 -1.</_>
        <_>
          14 21 4 2 2.</_></rects>
      <tilted>0</tilted></_>
    <_>
      <rects>
        <_>
          10 26 20 4 -1.</_>
        <_>
          20 26 10 4 2.</_></rects>
      <tilted>0</tilted></_>
    <_>
      <rects>
        <_>
          11 1 4 1 -1.</_>
        <_>
          13 1 2 1 2.</_></rects>
      <tilted>0</tilted></_>
    <_>
      <rects>
        <_>
          11 1 4 5 -1.</_>
        <_>
          13 1 2 5 2.</_></rects>
      <tilted>0</tilted></_>
    <_>
      <rects>
        <_>
          11 2 6 9 -1.</_>
        <_>
          14 2 3 9 2.</_></rects>
      <tilted>0</tilted></_>
    <_>
      <rects>
        <_>
          11 6 11 10 -1.</_>
        <_>
          11 11 11 5 2.</_></rects>
      <tilted>0</tilted></_>
    <_>
      <rects>
        <_>
          11 8 12 8 -1.</_>
        <_>
          11 12 12 4 2.</_></rects>
      <tilted>0</tilted></_>
    <_>
      <rects>
        <_>
          11 9 11 2 -1.</_>
        <_>
          11 10 11 1 2.</_></rects>
      <tilted>0</tilted></_>
    <_>
      <rects>
        <_>
          11 11 15 12 -1.</_>
        <_>
          11 17 15 6 2.</_></rects>
      <tilted>0</tilted></_>
    <_>
      <rects>
        <_>
          11 17 6 10 -1.</_>
        <_>
          11 22 6 5 2.</_></rects>
      <tilted>0</tilted></_>
    <_>
      <rects>
        <_>
          12 0 7 2 -1.</_>
        <_>
          12 1 7 1 2.</_></rects>
      <tilted>0</tilted></_>
    <_>
      <rects>
        <_>
          12 0 16 2 -1.</_>
        <_>
          12 0 8 1 2.</_>
        <_>
          20 1 8 1 2.</_></rects>
      <tilted>0</tilted></_>
    <_>
      <rects>
        <_>
          12 0 18 10 -1.</_>
        <_>
          12 0 9 5 2.</_>
        <_>
          21 5 9 5 2.</_></rects>
      <tilted>0</tilted></_>
    <_>
      <rects>
        <_>
          12 4 14 17 -1.</_>
        <_>
          19 4 7 17 2.</_></rects>
      <tilted>0</tilted></_>
    <_>
      <rects>
        <_>
          12 7 15 1 -1.</_>
        <_>
          17 7 5 1 2.</_></rects>
      <tilted>0</tilted></_>
    <_>
      <rects>
        <_>
          12 9 6 1 -1.</_>
        <_>
          15 9 3 1 2.</_></rects>
      <tilted>0</tilted></_>
    <_>
      <rects>
        <_>
          12 9 9 6 -1.</_>
        <_>
          12 12 9 3 2.</_></rects>
      <tilted>0</tilted></_>
    <_>
      <rects>
        <_>
          12 10 13 8 -1.</_>
        <_>
          12 14 13 4 2.</_></rects>
      <tilted>0</tilted></_>
    <_>
      <rects>
        <_>
          12 18 2 10 -1.</_>
        <_>
          13 18 1 10 2.</_></rects>
      <tilted>0</tilted></_>
    <_>
      <rects>
        <_>
          13 0 2 24 -1.</_>
        <_>
          13 0 1 12 2.</_>
        <_>
          14 12 1 12 2.</_></rects>
      <tilted>0</tilted></_>
    <_>
      <rects>
        <_>
          13 0 16 2 -1.</_>
        <_>
          13 0 8 1 2.</_>
        <_>
          21 1 8 1 2.</_></rects>
      <tilted>0</tilted></_>
    <_>
      <rects>
        <_>
          13 1 2 10 -1.</_>
        <_>
          13 1 1 5 2.</_>
        <_>
          14 6 1 5 2.</_></rects>
      <tilted>0</tilted></_>
    <_>
      <rects>
        <_>
          13 2 8 12 -1.</_>
        <_>
          13 2 4 6 2.</_>
        <_>
          17 8 4 6 2.</_></rects>
      <tilted>0</tilted></_>
    <_>
      <rects>
        <_>
          13 2 7 2 -1.</_>
        <_>
          13 3 7 1 2.</_></rects>
      <tilted>0</tilted></_>
    <_>
      <rects>
        <_>
          13 5 4 10 -1.</_>
        <_>
          13 5 2 5 2.</_>
        <_>
          15 10 2 5 2.</_></rects>
      <tilted>0</tilted></_>
    <_>
      <rects>
        <_>
          13 5 13 10 -1.</_>
        <_>
          13 10 13 5 2.</_></rects>
      <tilted>0</tilted></_>
    <_>
      <rects>
        <_>
          13 6 6 2 -1.</_>
        <_>
          16 6 3 2 2.</_></rects>
      <tilted>0</tilted></_>
    <_>
      <rects>
        <_>
          13 9 2 16 -1.</_>
        <_>
          13 9 1 8 2.</_>
        <_>
          14 17 1 8 2.</_></rects>
      <tilted>0</tilted></_>
    <_>
      <rects>
        <_>
          13 18 2 11 -1.</_>
        <_>
          14 18 1 11 2.</_></rects>
      <tilted>0</tilted></_>
    <_>
      <rects>
        <_>
          13 18 12 11 -1.</_>
        <_>
          19 18 6 11 2.</_></rects>
      <tilted>0</tilted></_>
    <_>
      <rects>
        <_>
          13 29 2 1 -1.</_>
        <_>
          14 29 1 1 2.</_></rects>
      <tilted>0</tilted></_>
    <_>
      <rects>
        <_>
          14 0 3 15 -1.</_>
        <_>
          15 0 1 15 2.</_></rects>
      <tilted>0</tilted></_>
    <_>
      <rects>
        <_>
          14 0 6 5 -1.</_>
        <_>
          16 0 2 5 2.</_></rects>
      <tilted>0</tilted></_>
    <_>
      <rects>
        <_>
          14 0 6 6 -1.</_>
        <_>
          16 0 2 6 2.</_></rects>
      <tilted>0</tilted></_>
    <_>
      <rects>
        <_>
          14 0 16 1 -1.</_>
        <_>
          22 0 8 1 2.</_></rects>
      <tilted>0</tilted></_>
    <_>
      <rects>
        <_>
          14 1 12 2 -1.</_>
        <_>
          14 1 6 1 2.</_>
        <_>
          20 2 6 1 2.</_></rects>
      <tilted>0</tilted></_>
    <_>
      <rects>
        <_>
          14 3 6 14 -1.</_>
        <_>
          14 3 3 7 2.</_>
        <_>
          17 10 3 7 2.</_></rects>
      <tilted>0</tilted></_>
    <_>
      <rects>
        <_>
          14 5 2 2 -1.</_>
        <_>
          14 5 1 1 2.</_>
        <_>
          15 6 1 1 2.</_></rects>
      <tilted>0</tilted></_>
    <_>
      <rects>
        <_>
          14 6 2 4 -1.</_>
        <_>
          14 6 1 2 2.</_>
        <_>
          15 8 1 2 2.</_></rects>
      <tilted>0</tilted></_>
    <_>
      <rects>
        <_>
          14 8 2 2 -1.</_>
        <_>
          14 8 1 1 2.</_>
        <_>
          15 9 1 1 2.</_></rects>
      <tilted>0</tilted></_>
    <_>
      <rects>
        <_>
          14 8 16 4 -1.</_>
        <_>
          14 8 8 2 2.</_>
        <_>
          22 10 8 2 2.</_></rects>
      <tilted>0</tilted></_>
    <_>
      <rects>
        <_>
          14 16 16 1 -1.</_>
        <_>
          22 16 8 1 2.</_></rects>
      <tilted>0</tilted></_>
    <_>
      <rects>
        <_>
          14 26 10 2 -1.</_>
        <_>
          14 26 5 1 2.</_>
        <_>
          19 27 5 1 2.</_></rects>
      <tilted>0</tilted></_>
    <_>
      <rects>
        <_>
          14 26 10 4 -1.</_>
        <_>
          14 28 10 2 2.</_></rects>
      <tilted>0</tilted></_>
    <_>
      <rects>
        <_>
          14 29 2 1 -1.</_>
        <_>
          15 29 1 1 2.</_></rects>
      <tilted>0</tilted></_>
    <_>
      <rects>
        <_>
          15 0 3 8 -1.</_>
        <_>
          16 0 1 8 2.</_></rects>
      <tilted>0</tilted></_>
    <_>
      <rects>
        <_>
          15 0 6 7 -1.</_>
        <_>
          17 0 2 7 2.</_></rects>
      <tilted>0</tilted></_>
    <_>
      <rects>
        <_>
          15 0 14 2 -1.</_>
        <_>
          15 0 7 1 2.</_>
        <_>
          22 1 7 1 2.</_></rects>
      <tilted>0</tilted></_>
    <_>
      <rects>
        <_>
          15 3 5 6 -1.</_>
        <_>
          15 6 5 3 2.</_></rects>
      <tilted>0</tilted></_>
    <_>
      <rects>
        <_>
          15 8 2 2 -1.</_>
        <_>
          15 8 1 1 2.</_>
        <_>
          16 9 1 1 2.</_></rects>
      <tilted>0</tilted></_>
    <_>
      <rects>
        <_>
          15 14 2 2 -1.</_>
        <_>
          15 14 1 1 2.</_>
        <_>
          16 15 1 1 2.</_></rects>
      <tilted>0</tilted></_>
    <_>
      <rects>
        <_>
          15 27 2 2 -1.</_>
        <_>
          16 27 1 2 2.</_></rects>
      <tilted>0</tilted></_>
    <_>
      <rects>
        <_>
          15 27 8 2 -1.</_>
        <_>
          15 28 8 1 2.</_></rects>
      <tilted>0</tilted></_>
    <_>
      <rects>
        <_>
          15 27 9 2 -1.</_>
        <_>
          15 28 9 1 2.</_></rects>
      <tilted>0</tilted></_>
    <_>
      <rects>
        <_>
          16 0 10 6 -1.</_>
        <_>
          16 0 5 3 2.</_>
        <_>
          21 3 5 3 2.</_></rects>
      <tilted>0</tilted></_>
    <_>
      <rects>
        <_>
          16 0 12 8 -1.</_>
        <_>
          16 0 6 4 2.</_>
        <_>
          22 4 6 4 2.</_></rects>
      <tilted>0</tilted></_>
    <_>
      <rects>
        <_>
          16 1 12 6 -1.</_>
        <_>
          20 1 4 6 2.</_></rects>
      <tilted>0</tilted></_>
    <_>
      <rects>
        <_>
          16 3 6 3 -1.</_>
        <_>
          19 3 3 3 2.</_></rects>
      <tilted>0</tilted></_>
    <_>
      <rects>
        <_>
          16 8 4 3 -1.</_>
        <_>
          18 8 2 3 2.</_></rects>
      <tilted>0</tilted></_>
    <_>
      <rects>
        <_>
          16 9 8 8 -1.</_>
        <_>
          16 13 8 4 2.</_></rects>
      <tilted>0</tilted></_>
    <_>
      <rects>
        <_>
          16 28 2 2 -1.</_>
        <_>
          16 28 1 1 2.</_>
        <_>
          17 29 1 1 2.</_></rects>
      <tilted>0</tilted></_>
    <_>
      <rects>
        <_>
          16 29 14 1 -1.</_>
        <_>
          23 29 7 1 2.</_></rects>
      <tilted>0</tilted></_>
    <_>
      <rects>
        <_>
          17 0 2 20 -1.</_>
        <_>
          18 0 1 20 2.</_></rects>
      <tilted>0</tilted></_>
    <_>
      <rects>
        <_>
          17 0 6 7 -1.</_>
        <_>
          19 0 2 7 2.</_></rects>
      <tilted>0</tilted></_>
    <_>
      <rects>
        <_>
          17 0 10 2 -1.</_>
        <_>
          22 0 5 2 2.</_></rects>
      <tilted>0</tilted></_>
    <_>
      <rects>
        <_>
          17 2 2 25 -1.</_>
        <_>
          18 2 1 25 2.</_></rects>
      <tilted>0</tilted></_>
    <_>
      <rects>
        <_>
          17 24 4 4 -1.</_>
        <_>
          17 26 4 2 2.</_></rects>
      <tilted>0</tilted></_>
    <_>
      <rects>
        <_>
          17 27 2 1 -1.</_>
        <_>
          18 27 1 1 2.</_></rects>
      <tilted>0</tilted></_>
    <_>
      <rects>
        <_>
          18 0 12 3 -1.</_>
        <_>
          24 0 6 3 2.</_></rects>
      <tilted>0</tilted></_>
    <_>
      <rects>
        <_>
          18 1 1 3 -1.</_>
        <_>
          18 2 1 1 2.</_></rects>
      <tilted>0</tilted></_>
    <_>
      <rects>
        <_>
          18 3 2 26 -1.</_>
        <_>
          19 3 1 26 2.</_></rects>
      <tilted>0</tilted></_>
    <_>
      <rects>
        <_>
          18 7 12 6 -1.</_>
        <_>
          18 7 6 3 2.</_>
        <_>
          24 10 6 3 2.</_></rects>
      <tilted>0</tilted></_>
    <_>
      <rects>
        <_>
          18 8 12 6 -1.</_>
        <_>
          18 8 6 3 2.</_>
        <_>
          24 11 6 3 2.</_></rects>
      <tilted>0</tilted></_>
    <_>
      <rects>
        <_>
          18 11 8 16 -1.</_>
        <_>
          18 19 8 8 2.</_></rects>
      <tilted>0</tilted></_>
    <_>
      <rects>
        <_>
          18 18 12 4 -1.</_>
        <_>
          24 18 6 4 2.</_></rects>
      <tilted>0</tilted></_>
    <_>
      <rects>
        <_>
          18 29 3 1 -1.</_>
        <_>
          19 29 1 1 2.</_></rects>
      <tilted>0</tilted></_>
    <_>
      <rects>
        <_>
          19 6 8 10 -1.</_>
        <_>
          19 11 8 5 2.</_></rects>
      <tilted>0</tilted></_>
    <_>
      <rects>
        <_>
          19 21 8 4 -1.</_>
        <_>
          19 21 4 2 2.</_>
        <_>
          23 23 4 2 2.</_></rects>
      <tilted>0</tilted></_>
    <_>
      <rects>
        <_>
          19 28 2 2 -1.</_>
        <_>
          20 28 1 2 2.</_></rects>
      <tilted>0</tilted></_>
    <_>
      <rects>
        <_>
          20 11 6 16 -1.</_>
        <_>
          20 19 6 8 2.</_></rects>
      <tilted>0</tilted></_>
    <_>
      <rects>
        <_>
          20 18 10 12 -1.</_>
        <_>
          25 18 5 12 2.</_></rects>
      <tilted>0</tilted></_>
    <_>
      <rects>
        <_>
          20 25 2 2 -1.</_>
        <_>
          20 26 2 1 2.</_></rects>
      <tilted>0</tilted></_>
    <_>
      <rects>
        <_>
          20 28 10 2 -1.</_>
        <_>
          20 29 10 1 2.</_></rects>
      <tilted>0</tilted></_>
    <_>
      <rects>
        <_>
          20 29 6 1 -1.</_>
        <_>
          23 29 3 1 2.</_></rects>
      <tilted>0</tilted></_>
    <_>
      <rects>
        <_>
          21 4 8 8 -1.</_>
        <_>
          21 4 4 4 2.</_>
        <_>
          25 8 4 4 2.</_></rects>
      <tilted>0</tilted></_>
    <_>
      <rects>
        <_>
          21 6 4 22 -1.</_>
        <_>
          21 6 2 11 2.</_>
        <_>
          23 17 2 11 2.</_></rects>
      <tilted>0</tilted></_>
    <_>
      <rects>
        <_>
          21 11 8 1 -1.</_>
        <_>
          25 11 4 1 2.</_></rects>
      <tilted>0</tilted></_>
    <_>
      <rects>
        <_>
          21 19 3 10 -1.</_>
        <_>
          21 24 3 5 2.</_></rects>
      <tilted>0</tilted></_>
    <_>
      <rects>
        <_>
          21 28 8 2 -1.</_>
        <_>
          21 29 8 1 2.</_></rects>
      <tilted>0</tilted></_>
    <_>
      <rects>
        <_>
          21 29 6 1 -1.</_>
        <_>
          24 29 3 1 2.</_></rects>
      <tilted>0</tilted></_>
    <_>
      <rects>
        <_>
          22 2 4 6 -1.</_>
        <_>
          22 2 2 3 2.</_>
        <_>
          24 5 2 3 2.</_></rects>
      <tilted>0</tilted></_>
    <_>
      <rects>
        <_>
          22 3 4 2 -1.</_>
        <_>
          24 3 2 2 2.</_></rects>
      <tilted>0</tilted></_>
    <_>
      <rects>
        <_>
          22 4 8 24 -1.</_>
        <_>
          22 4 4 12 2.</_>
        <_>
          26 16 4 12 2.</_></rects>
      <tilted>0</tilted></_>
    <_>
      <rects>
        <_>
          22 5 4 22 -1.</_>
        <_>
          22 5 2 11 2.</_>
        <_>
          24 16 2 11 2.</_></rects>
      <tilted>0</tilted></_>
    <_>
      <rects>
        <_>
          22 6 4 8 -1.</_>
        <_>
          22 6 2 4 2.</_>
        <_>
          24 10 2 4 2.</_></rects>
      <tilted>0</tilted></_>
    <_>
      <rects>
        <_>
          22 17 8 13 -1.</_>
        <_>
          26 17 4 13 2.</_></rects>
      <tilted>0</tilted></_>
    <_>
      <rects>
        <_>
          22 19 8 10 -1.</_>
        <_>
          26 19 4 10 2.</_></rects>
      <tilted>0</tilted></_>
    <_>
      <rects>
        <_>
          22 19 8 11 -1.</_>
        <_>
          26 19 4 11 2.</_></rects>
      <tilted>0</tilted></_>
    <_>
      <rects>
        <_>
          22 20 8 10 -1.</_>
        <_>
          26 20 4 10 2.</_></rects>
      <tilted>0</tilted></_>
    <_>
      <rects>
        <_>
          22 21 8 4 -1.</_>
        <_>
          26 21 4 4 2.</_></rects>
      <tilted>0</tilted></_>
    <_>
      <rects>
        <_>
          22 24 8 1 -1.</_>
        <_>
          26 24 4 1 2.</_></rects>
      <tilted>0</tilted></_>
    <_>
      <rects>
        <_>
          23 2 4 8 -1.</_>
        <_>
          23 2 2 4 2.</_>
        <_>
          25 6 2 4 2.</_></rects>
      <tilted>0</tilted></_>
    <_>
      <rects>
        <_>
          23 5 4 4 -1.</_>
        <_>
          25 5 2 4 2.</_></rects>
      <tilted>0</tilted></_>
    <_>
      <rects>
        <_>
          23 8 4 2 -1.</_>
        <_>
          25 8 2 2 2.</_></rects>
      <tilted>0</tilted></_>
    <_>
      <rects>
        <_>
          23 12 2 16 -1.</_>
        <_>
          23 12 1 8 2.</_>
        <_>
          24 20 1 8 2.</_></rects>
      <tilted>0</tilted></_>
    <_>
      <rects>
        <_>
          24 0 6 2 -1.</_>
        <_>
          24 1 6 1 2.</_></rects>
      <tilted>0</tilted></_>
    <_>
      <rects>
        <_>
          24 4 2 8 -1.</_>
        <_>
          24 4 1 4 2.</_>
        <_>
          25 8 1 4 2.</_></rects>
      <tilted>0</tilted></_>
    <_>
      <rects>
        <_>
          24 4 4 22 -1.</_>
        <_>
          24 4 2 11 2.</_>
        <_>
          26 15 2 11 2.</_></rects>
      <tilted>0</tilted></_>
    <_>
      <rects>
        <_>
          24 5 2 6 -1.</_>
        <_>
          24 5 1 3 2.</_>
        <_>
          25 8 1 3 2.</_></rects>
      <tilted>0</tilted></_>
    <_>
      <rects>
        <_>
          24 7 6 10 -1.</_>
        <_>
          24 7 3 5 2.</_>
        <_>
          27 12 3 5 2.</_></rects>
      <tilted>0</tilted></_>
    <_>
      <rects>
        <_>
          24 8 2 4 -1.</_>
        <_>
          24 8 1 2 2.</_>
        <_>
          25 10 1 2 2.</_></rects>
      <tilted>0</tilted></_>
    <_>
      <rects>
        <_>
          24 24 6 2 -1.</_>
        <_>
          27 24 3 2 2.</_></rects>
      <tilted>0</tilted></_>
    <_>
      <rects>
        <_>
          24 28 4 2 -1.</_>
        <_>
          24 29 4 1 2.</_></rects>
      <tilted>0</tilted></_>
    <_>
      <rects>
        <_>
          24 29 2 1 -1.</_>
        <_>
          25 29 1 1 2.</_></rects>
      <tilted>0</tilted></_>
    <_>
      <rects>
        <_>
          25 1 1 22 -1.</_>
        <_>
          25 12 1 11 2.</_></rects>
      <tilted>0</tilted></_>
    <_>
      <rects>
        <_>
          25 9 3 8 -1.</_>
        <_>
          25 13 3 4 2.</_></rects>
      <tilted>0</tilted></_>
    <_>
      <rects>
        <_>
          26 13 2 6 -1.</_>
        <_>
          27 13 1 6 2.</_></rects>
      <tilted>0</tilted></_>
    <_>
      <rects>
        <_>
          27 0 3 4 -1.</_>
        <_>
          27 2 3 2 2.</_></rects>
      <tilted>0</tilted></_>
    <_>
      <rects>
        <_>
          28 0 2 4 -1.</_>
        <_>
          29 0 1 4 2.</_></rects>
      <tilted>0</tilted></_>
    <_>
      <rects>
        <_>
          28 0 2 8 -1.</_>
        <_>
          28 4 2 4 2.</_></rects>
      <tilted>0</tilted></_>
    <_>
      <rects>
        <_>
          28 2 2 6 -1.</_>
        <_>
          28 5 2 3 2.</_></rects>
      <tilted>0</tilted></_>
    <_>
      <rects>
        <_>
          28 8 1 8 -1.</_>
        <_>
          28 12 1 4 2.</_></rects>
      <tilted>0</tilted></_>
    <_>
      <rects>
        <_>
          28 23 2 7 -1.</_>
        <_>
          29 23 1 7 2.</_></rects>
      <tilted>0</tilted></_>
    <_>
      <rects>
        <_>
          28 29 2 1 -1.</_>
        <_>
          29 29 1 1 2.</_></rects>
      <tilted>0</tilted></_>
    <_>
      <rects>
        <_>
          29 5 1 22 -1.</_>
        <_>
          29 16 1 11 2.</_></rects>
      <tilted>0</tilted></_>
    <_>
      <rects>
        <_>
          29 6 1 22 -1.</_>
        <_>
          29 17 1 11 2.</_></rects>
      <tilted>0</tilted></_>
    <_>
      <rects>
        <_>
          29 8 1 22 -1.</_>
        <_>
          29 19 1 11 2.</_></rects>
      <tilted>0</tilted></_>
    <_>
      <rects>
        <_>
          29 14 1 16 -1.</_>
        <_>
          29 22 1 8 2.</_></rects>
      <tilted>0</tilted></_>
    <_>
      <rects>
        <_>
          29 21 1 8 -1.</_>
        <_>
          29 25 1 4 2.</_></rects>
      <tilted>0</tilted></_></features></cascade>
</opencv_storage>
