<?xml version="1.0"?>
<opencv_storage>
<stage1>
  <maxWeakCount>5</maxWeakCount>
  <stageThreshold>-1.2855949401855469e+00</stageThreshold>
  <weakClassifiers>
    <_>
      <internalNodes>
        0 -1 372046 3.8523953408002853e-02</internalNodes>
      <leafValues>
        -7.1809524297714233e-01 5.0999999046325684e-01</leafValues></_>
    <_>
      <internalNodes>
        0 -1 51956 -3.1101925298571587e-02</internalNodes>
      <leafValues>
        5.3091573715209961e-01 -6.6713547706604004e-01</leafValues></_>
    <_>
      <internalNodes>
        0 -1 39664 -1.8890559673309326e-01</internalNodes>
      <leafValues>
        6.4122968912124634e-01 -4.5824873447418213e-01</leafValues></_>
    <_>
      <internalNodes>
        0 -1 187313 1.1903844773769379e-02</internalNodes>
      <leafValues>
        -7.4440604448318481e-01 3.2148987054824829e-01</leafValues></_>
    <_>
      <internalNodes>
        0 -1 281772 -4.4686727225780487e-02</internalNodes>
      <leafValues>
        2.3639461398124695e-01 -8.6446803808212280e-01</leafValues></_></weakClassifiers></stage1>
</opencv_storage>
